-36
6
30
92
-54
5
3
23
-67
-48
-44
48
-35
57
-7
-22
45
5
-47
-66
-38
37
5
49
-48
8
-56
21
-10
-18
-18
48
-4
50
-45
52
-9
-30
-49
6
27
-43
25
-4
-24
5
6
-42
0
7
32
27
0
-19
-20
13
-25
-27
20
10
-69
16
64
-15
-84
92
25
10
9
-41
17
7
4
-8
-5
-55
10
-29
-3
35
19
-34
-4
2
-9
33
16
-15
15
22
-59
34
-79
59
-5
57
-4
-83
14
12
-39
22
-67
37
24
58
-89
-37
-42
23
-18
46
27
16
-12
26
-4
56
-7
-30
-10
-28
-8
1
25
17
6
26
11
4
31
-6
45
-17
0
-9
-2
-28
-6
11
-8
39
-76
-116
78
-7
37
-56
-32
-45
-1
2
44
-45
25
19
-29
-1
-67
-64
-10
-15
21
-29
-18
19
22
-18
16
-23
-2
11
-41
-26
8
-9
52
47
-55
-8
31
33
-26
20
-22
38
41
-34
-18
-15
36
20
4
28
-18
24
23
27
1
10
-32
51
-123
-80
-43
23
3
-4
-55
28
21
-36
-23
-2
-10
10
-1
24
-3
2
6
-13
26
-17
31
-19
15
37
-1
33
38
38
-26
-24
-3
-9
42
1
-4
10
55
-16
17
5
-85
-19
-6
-47
8
26
39
-39
-8
17
23
56
26
26
17
14
14
22
-93
-7
0
74
-6
9
26
12
0
53
-81
-20
-32
78
19
-48
13
0
18
42
-19
27
-38
-26
21
-20
33
-12
21
-17
23
6
41
37
39
-22
34
-22
-29
21
-24
19
28
-3
-4
14
-1
45
-115
69
-41
9
9
65
-24
-1
-59
37
-50
31
18
43
17
21
12
-23
-78
58
27
63
31
-1
-41
34
23
19
-29
2
-68
-35
-45
-47
-57
71
54
-20
20
-38
51
-17
69
-50
15
-108
21
46
44
28
33
14
-26
-25
19
13
19
15
23
30
44
35
42
29
-31
-47
-41
45
8
6
-32
19
12
39
10
-18
-47
-48
2
-31
-18
-42
19
-6
24
-28
42
3
-9
-13
-35
12
23
-1
0
16
-79
9
-38
20
8
3
-18
0
24
-21
24
-19
33
-22
22
-21
22
-15
18
17
-1
1
-1
22
7
-27
20
2
-32
-41
3
-4
6
15
2
-9
23
38
25
-20
-15
31
21
2
48
-3
-1
-51
-5
-67
-37
52
-64
-21
4
-66
-42
39
5
-8
-45
7
1
-40
30
-55
17
-28
43
-25
-23
8
-45
55
7
-40
-31
22
-14
10
0
-32
5
13
10
-30
2
26
-14
34
-13
-9
38
1
-52
109
-21
-62
69
-24
-40
1
-61
-83
-15
46
16
-13
16
-37
20
-9
21
-21
-50
-21
8
-92
0
-65
56
20
35
-13
4
-18
-3
24
10
30
-71
37
-28
38
-68
-34
27
14
-127
30
-31
47
-18
-35
46
4
-29
6
4
-97
-44
15
-8
-8
34
3
11
-6
-5
-38
-2
32
-10
-2
-17
31
17
-49
11
-21
40
6
40
-68
-5
37
-21
-66
53
-5
-31
80
-20
18
-43
3
6
28
15
-57
21
19
-37
-6
5
-28
-92
-50
58
-41
47
-20
-59
15
-21
76
-18
-56
-19
36
17
1
4
14
25
-10
-39
-11
10
17
-31
6
-13
-2
8
13
18
-9
50
-31
28
-72
-56
-17
-8
28
-26
32
-17
-33
12
-3
10
-5
43
25
26
33
-57
-88
-70
39
-25
23
-31
41
-47
16
48
40
-60
-92
20
29
-5
3
-45
-27
33
-25
31
15
3
-20
-16
38
26
28
-23
-19
-23
-26
21
-18
-28
-40
-24
-1
22
18
-24
39
37
29
-14
38
-8
19
-3
23
-12
-27
-3
18
6
-10
-39
-22
24
58
31
-12
21
-57
-4
-27
37
19
-4
37
-65
-26
7
-21
32
-61
2
-44
-17
48
0
21
-38
-43
-26
-70
-46
34
-114
87
48
81
-26
-53
-37
-4
44
2
0
2
-76
33
-19
16
3
55
83
-73
8
-69
-37
34
-53
8
10
13
7
8
-34
-13
29
-30
27
-52
8
10
22
17
-8
14
35
-73
-4
14
-41
30
22
26
7
-26
-11
71
-22
-99
23
-32
12
0
-15
-14
-1
-24
39
13
33
-30
3
0
2
-22
12
-42
-16
-18
16
4
-16
-1
25
-22
-12
0
13
-28
-81
-46
-37
45
-6
-3
-47
-67
39
8
40
-20
12
-1
31
-5
1
21
-96
40
47
-2
-20
-51
-54
-8
45
36
-52
-42
-18
-30
-39
11
40
28
-22
-21
23
-38
-19
-35
0
30
5
11
20
4
26
10
-47
65
6
13
-31
3
19
30
-37
-44
-18
15
10
43
-76
31
-68
-70
-19
68
-2
-44
33
-13
22
-29
42
18
-2
-2
2
-22
9
-24
-40
-43
-19
-20
17
-4
-18
-16
-47
-80
17
-12
3
-39
28
-22
0
-1
48
-35
4
39
2
-28
-82
-60
25
-19
28
25
10
33
-20
21
24
-25
32
18
-17
33
-37
-14
-6
-27
18
-5
-41
23
44
38
33
-5
28
-8
34
23
30
-58
-36
79
-58
65
-31
-24
-60
-24
32
-29
-33
34
17
15
-14
19
29
25
-59
32
62
-12
-31
-31
-15
59
-72
-89
54
10
-107
30
28
42
15
11
9
34
-34
52
36
18
-2
1
-2
0
11
-5
27
-34
10
-50
-54
5
65
-40
2
58
-5
-49
-4
34
-44
-28
-45
-5
19
43
-1
18
23
32
2
1
43
-17
25
46
-49
34
28
-31
55
-34
-36
49
-35
-22
9
15
1
-11
-10
-47
-63
-7
-92
44
17
-2
15
-38
32
-36
-28
-15
15
10
38
-87
-5
-7
-90
69
15
14
-98
-3
9
-24
41
12
-49
29
18
0
38
-22
-10
3
-4
7
39
-43
-28
5
29
33
-13
-10
-109
27
61
9
-56
-16
-54
68
-16
63
35
33
-20
-49
1
26
-77
-115
23
50
31
-45
54
-58
-60
-3
-60
-68
44
-17
-46
-34
-5
13
62
-28
-90
38
56
-31
74
36
-110
21
-66
-44
-3
32
-85
-17
22
84
-23
-99
-84
6
-12
-22
21
43
22
6
-14
11
35
-21
28
-13
-46
21
-24
-33
-64
43
28
-42
27
19
-27
-11
26
15
37
18
28
20
4
36
-16
-17
6
-29
-6
-39
-38
-17
-34
-21
7
-4
-21
-14
-28
-15
-50
10
1
34
-20
-22
5
-25
18
-28
33
-54
17
19
17
22
-23
-21
42
-17
4
10
15
45
-7
37
15
9
28
-1
38
-28
17
-13
26
1
-26
-30
2
-20
-12
24
25
-18
43
58
-48
-12
-12
-58
53
83
-62
-89
42
-24
-2
38
40
43
0
22
25
23
